<?xml version="1.0" encoding="US-ASCII"?>

<!--
  Bayesian network in XMLBIF v0.3 (BayesNet Interchange Format)
  Produced by SamIam http://reasoning.cs.ucla.edu/samiam
  Output created Mar 4, 2017 11:01:07 AM
-->

<BIF VERSION="0.3">
<NETWORK>
  <NAME>UNTITLED</NAME>

  <VARIABLE TYPE="nature">
    <NAME>Seafood</NAME>
    <OUTCOME>False</OUTCOME>
    <OUTCOME>True</OUTCOME>
    <PROPERTY>position = (704, 270)</PROPERTY>
  </VARIABLE>

  <VARIABLE TYPE="nature">
    <NAME>Sushi Bars</NAME>
    <OUTCOME>False</OUTCOME>
    <OUTCOME>True</OUTCOME>
    <PROPERTY>position = (1152, 270)</PROPERTY>
  </VARIABLE>

  <VARIABLE TYPE="nature">
    <NAME>Sandwiches</NAME>
    <OUTCOME>False</OUTCOME>
    <OUTCOME>True</OUTCOME>
    <PROPERTY>position = (512, 0)</PROPERTY>
  </VARIABLE>

  <VARIABLE TYPE="nature">
    <NAME>Diners</NAME>
    <OUTCOME>False</OUTCOME>
    <OUTCOME>True</OUTCOME>
    <PROPERTY>position = (896, 0)</PROPERTY>
  </VARIABLE>

  <VARIABLE TYPE="nature">
    <NAME>Coffee Tea</NAME>
    <OUTCOME>False</OUTCOME>
    <OUTCOME>True</OUTCOME>
    <PROPERTY>position = (576, 180)</PROPERTY>
  </VARIABLE>

  <VARIABLE TYPE="nature">
    <NAME>Cafes</NAME>
    <OUTCOME>False</OUTCOME>
    <OUTCOME>True</OUTCOME>
    <PROPERTY>position = (640, 0)</PROPERTY>
  </VARIABLE>

  <VARIABLE TYPE="nature">
    <NAME>Pizza</NAME>
    <OUTCOME>False</OUTCOME>
    <OUTCOME>True</OUTCOME>
    <PROPERTY>position = (448, 270)</PROPERTY>
  </VARIABLE>

  <VARIABLE TYPE="nature">
    <NAME>Bakeries</NAME>
    <OUTCOME>False</OUTCOME>
    <OUTCOME>True</OUTCOME>
    <PROPERTY>position = (704, 90)</PROPERTY>
  </VARIABLE>

  <VARIABLE TYPE="nature">
    <NAME>Ethnic Food</NAME>
    <OUTCOME>False</OUTCOME>
    <OUTCOME>True</OUTCOME>
    <PROPERTY>position = (384, 0)</PROPERTY>
  </VARIABLE>

  <VARIABLE TYPE="nature">
    <NAME>Specialty Food</NAME>
    <OUTCOME>False</OUTCOME>
    <OUTCOME>True</OUTCOME>
    <PROPERTY>position = (448, 90)</PROPERTY>
  </VARIABLE>

  <VARIABLE TYPE="nature">
    <NAME>Burgers</NAME>
    <OUTCOME>False</OUTCOME>
    <OUTCOME>True</OUTCOME>
    <OBSERVED>1</OBSERVED>
    <PROPERTY>position = (832, 360)</PROPERTY>
  </VARIABLE>

  <VARIABLE TYPE="nature">
    <NAME>Chicken Wings</NAME>
    <OUTCOME>False</OUTCOME>
    <OUTCOME>True</OUTCOME>
    <PROPERTY>position = (896, 180)</PROPERTY>
  </VARIABLE>

  <VARIABLE TYPE="nature">
    <NAME>Vietnamese</NAME>
    <OUTCOME>False</OUTCOME>
    <OUTCOME>True</OUTCOME>
    <PROPERTY>position = (1408, 90)</PROPERTY>
  </VARIABLE>

  <VARIABLE TYPE="nature">
    <NAME>Tapas/Small Plates</NAME>
    <OUTCOME>False</OUTCOME>
    <OUTCOME>True</OUTCOME>
    <PROPERTY>position = (0, 90)</PROPERTY>
  </VARIABLE>

  <VARIABLE TYPE="nature">
    <NAME>Steakhouses</NAME>
    <OUTCOME>False</OUTCOME>
    <OUTCOME>True</OUTCOME>
    <PROPERTY>position = (704, 180)</PROPERTY>
  </VARIABLE>

  <VARIABLE TYPE="nature">
    <NAME>Middle Eastern</NAME>
    <OUTCOME>False</OUTCOME>
    <OUTCOME>True</OUTCOME>
    <PROPERTY>position = (128, 180)</PROPERTY>
  </VARIABLE>

  <VARIABLE TYPE="nature">
    <NAME>American (New)</NAME>
    <OUTCOME>False</OUTCOME>
    <OUTCOME>True</OUTCOME>
    <PROPERTY>position = (832, 180)</PROPERTY>
  </VARIABLE>

  <VARIABLE TYPE="nature">
    <NAME>Vegan</NAME>
    <OUTCOME>False</OUTCOME>
    <OUTCOME>True</OUTCOME>
    <PROPERTY>position = (320, 90)</PROPERTY>
  </VARIABLE>

  <VARIABLE TYPE="nature">
    <NAME>Indian</NAME>
    <OUTCOME>False</OUTCOME>
    <OUTCOME>True</OUTCOME>
    <PROPERTY>position = (192, 0)</PROPERTY>
  </VARIABLE>

  <VARIABLE TYPE="nature">
    <NAME>Japanese</NAME>
    <OUTCOME>False</OUTCOME>
    <OUTCOME>True</OUTCOME>
    <PROPERTY>position = (1152, 360)</PROPERTY>
  </VARIABLE>

  <VARIABLE TYPE="nature">
    <NAME>Chinese</NAME>
    <OUTCOME>False</OUTCOME>
    <OUTCOME>True</OUTCOME>
    <PROPERTY>position = (1152, 90)</PROPERTY>
  </VARIABLE>

  <VARIABLE TYPE="nature">
    <NAME>Fast Food</NAME>
    <OUTCOME>False</OUTCOME>
    <OUTCOME>True</OUTCOME>
    <PROPERTY>position = (960, 90)</PROPERTY>
  </VARIABLE>

  <VARIABLE TYPE="nature">
    <NAME>Mediterranean</NAME>
    <OUTCOME>False</OUTCOME>
    <OUTCOME>True</OUTCOME>
    <PROPERTY>position = (128, 0)</PROPERTY>
  </VARIABLE>

  <VARIABLE TYPE="nature">
    <NAME>Soup</NAME>
    <OUTCOME>False</OUTCOME>
    <OUTCOME>True</OUTCOME>
    <PROPERTY>position = (512, 180)</PROPERTY>
  </VARIABLE>

  <VARIABLE TYPE="nature">
    <NAME>Delis</NAME>
    <OUTCOME>False</OUTCOME>
    <OUTCOME>True</OUTCOME>
    <PROPERTY>position = (384, 180)</PROPERTY>
  </VARIABLE>

  <VARIABLE TYPE="nature">
    <NAME>Buffets</NAME>
    <OUTCOME>False</OUTCOME>
    <OUTCOME>True</OUTCOME>
    <PROPERTY>position = (192, 90)</PROPERTY>
  </VARIABLE>

  <VARIABLE TYPE="nature">
    <NAME>Wine Bars</NAME>
    <OUTCOME>False</OUTCOME>
    <OUTCOME>True</OUTCOME>
    <PROPERTY>position = (832, 90)</PROPERTY>
  </VARIABLE>

  <VARIABLE TYPE="nature">
    <NAME>Greek</NAME>
    <OUTCOME>False</OUTCOME>
    <OUTCOME>True</OUTCOME>
    <PROPERTY>position = (128, 90)</PROPERTY>
  </VARIABLE>

  <VARIABLE TYPE="nature">
    <NAME>Vegetarian</NAME>
    <OUTCOME>False</OUTCOME>
    <OUTCOME>True</OUTCOME>
    <PROPERTY>position = (320, 0)</PROPERTY>
  </VARIABLE>

  <VARIABLE TYPE="nature">
    <NAME>Comfort Food</NAME>
    <OUTCOME>False</OUTCOME>
    <OUTCOME>True</OUTCOME>
    <PROPERTY>position = (256, 90)</PROPERTY>
  </VARIABLE>

  <VARIABLE TYPE="nature">
    <NAME>Desserts</NAME>
    <OUTCOME>False</OUTCOME>
    <OUTCOME>True</OUTCOME>
    <PROPERTY>position = (640, 180)</PROPERTY>
  </VARIABLE>

  <VARIABLE TYPE="nature">
    <NAME>Mexican</NAME>
    <OUTCOME>False</OUTCOME>
    <OUTCOME>True</OUTCOME>
    <PROPERTY>position = (960, 0)</PROPERTY>
  </VARIABLE>

  <VARIABLE TYPE="nature">
    <NAME>Asian Fusion</NAME>
    <OUTCOME>False</OUTCOME>
    <OUTCOME>True</OUTCOME>
    <PROPERTY>position = (1280, 450)</PROPERTY>
  </VARIABLE>

  <VARIABLE TYPE="nature">
    <NAME>Beer</NAME>
    <OUTCOME>False</OUTCOME>
    <OUTCOME>True</OUTCOME>
    <PROPERTY>position = (832, 0)</PROPERTY>
  </VARIABLE>

  <VARIABLE TYPE="nature">
    <NAME>Thai</NAME>
    <OUTCOME>False</OUTCOME>
    <OUTCOME>True</OUTCOME>
    <PROPERTY>position = (1280, 0)</PROPERTY>
  </VARIABLE>

  <VARIABLE TYPE="nature">
    <NAME>Barbeque</NAME>
    <OUTCOME>False</OUTCOME>
    <OUTCOME>True</OUTCOME>
    <PROPERTY>position = (640, 270)</PROPERTY>
  </VARIABLE>

  <VARIABLE TYPE="nature">
    <NAME>Noodles</NAME>
    <OUTCOME>False</OUTCOME>
    <OUTCOME>True</OUTCOME>
    <PROPERTY>position = (1088, 450)</PROPERTY>
  </VARIABLE>

  <VARIABLE TYPE="nature">
    <NAME>Italian</NAME>
    <OUTCOME>False</OUTCOME>
    <OUTCOME>True</OUTCOME>
    <PROPERTY>position = (448, 180)</PROPERTY>
  </VARIABLE>

  <VARIABLE TYPE="nature">
    <NAME>Breakfast Brunch</NAME>
    <OUTCOME>False</OUTCOME>
    <OUTCOME>True</OUTCOME>
    <PROPERTY>position = (896, 90)</PROPERTY>
  </VARIABLE>

  <VARIABLE TYPE="nature">
    <NAME>Tapas Bars</NAME>
    <OUTCOME>False</OUTCOME>
    <OUTCOME>True</OUTCOME>
    <PROPERTY>position = (0, 0)</PROPERTY>
  </VARIABLE>

  <VARIABLE TYPE="nature">
    <NAME>Korean</NAME>
    <OUTCOME>False</OUTCOME>
    <OUTCOME>True</OUTCOME>
    <PROPERTY>position = (1408, 360)</PROPERTY>
  </VARIABLE>

  <VARIABLE TYPE="nature">
    <NAME>American (Traditional)</NAME>
    <OUTCOME>False</OUTCOME>
    <OUTCOME>True</OUTCOME>
    <PROPERTY>position = (768, 270)</PROPERTY>
  </VARIABLE>

  <VARIABLE TYPE="nature">
    <NAME>Salad</NAME>
    <OUTCOME>False</OUTCOME>
    <OUTCOME>True</OUTCOME>
    <PROPERTY>position = (576, 90)</PROPERTY>
  </VARIABLE>

  <VARIABLE TYPE="nature">
    <NAME>Ice Cream Frozen Yogurt</NAME>
    <OUTCOME>False</OUTCOME>
    <OUTCOME>True</OUTCOME>
    <PROPERTY>position = (768, 90)</PROPERTY>
  </VARIABLE>

  <VARIABLE TYPE="nature">
    <NAME>Hot Dogs</NAME>
    <OUTCOME>False</OUTCOME>
    <OUTCOME>True</OUTCOME>
    <PROPERTY>position = (384, 90)</PROPERTY>
  </VARIABLE>

  <DEFINITION>
    <FOR>Seafood</FOR>
    <GIVEN>Steakhouses</GIVEN>
    <TABLE>0.696165762974 0.303834237026 0.331973898858 0.668026101142 </TABLE>
  </DEFINITION>

  <DEFINITION>
    <FOR>Sushi Bars</FOR>
    <GIVEN>American (New)</GIVEN>
    <TABLE>0.633721941883 0.366278058117 0.406809338521 0.593190661479 </TABLE>
  </DEFINITION>

  <DEFINITION>
    <FOR>Sandwiches</FOR>
    <TABLE>0.533537008749 0.466462991251 </TABLE>
  </DEFINITION>

  <DEFINITION>
    <FOR>Diners</FOR>
    <TABLE>0.554644203059 0.445355796941 </TABLE>
  </DEFINITION>

  <DEFINITION>
    <FOR>Coffee Tea</FOR>
    <GIVEN>Bakeries</GIVEN>
    <GIVEN>Cafes</GIVEN>
    <TABLE>0.792810204871 0.207189795129 0.467244701349 0.532755298651 0.565943238731 0.434056761269 0.244129158513 0.755870841487 </TABLE>
  </DEFINITION>

  <DEFINITION>
    <FOR>Cafes</FOR>
    <TABLE>0.551834668916 0.448165331084 </TABLE>
  </DEFINITION>

  <DEFINITION>
    <FOR>Pizza</FOR>
    <GIVEN>Italian</GIVEN>
    <TABLE>0.734486873508 0.265513126492 0.287992345718 0.712007654282 </TABLE>
  </DEFINITION>

  <DEFINITION>
    <FOR>Bakeries</FOR>
    <GIVEN>Cafes</GIVEN>
    <TABLE>0.683052749719 0.316947250281 0.332965517241 0.667034482759 </TABLE>
  </DEFINITION>

  <DEFINITION>
    <FOR>Ethnic Food</FOR>
    <TABLE>0.555248618785 0.444751381215 </TABLE>
  </DEFINITION>

  <DEFINITION>
    <FOR>Specialty Food</FOR>
    <GIVEN>Ethnic Food</GIVEN>
    <TABLE>0.880952380952 0.119047619048 0.125554569654 0.874445430346 </TABLE>
  </DEFINITION>

  <DEFINITION>
    <FOR>Burgers</FOR>
    <GIVEN>American (New)</GIVEN>
    <GIVEN>American (Traditional)</GIVEN>
    <GIVEN>Fast Food</GIVEN>
    <TABLE>0.834194457492 0.165805542508 0.627272727273 0.372727272727 0.613193403298 0.386806596702 0.37917222964 0.62082777036 0.668547249647 0.331452750353 0.492283950617 0.507716049383 0.405154639175 0.594845360825 0.191402251791 0.808597748209 </TABLE>
  </DEFINITION>

  <DEFINITION>
    <FOR>Chicken Wings</FOR>
    <GIVEN>Fast Food</GIVEN>
    <TABLE>0.637479806139 0.362520193861 0.399638336347 0.600361663653 </TABLE>
  </DEFINITION>

  <DEFINITION>
    <FOR>Vietnamese</FOR>
    <GIVEN>Thai</GIVEN>
    <TABLE>0.673173803526 0.326826196474 0.407249466951 0.592750533049 </TABLE>
  </DEFINITION>

  <DEFINITION>
    <FOR>Tapas/Small Plates</FOR>
    <GIVEN>Tapas Bars</GIVEN>
    <TABLE>0.782918149466 0.217081850534 0.32380952381 0.67619047619 </TABLE>
  </DEFINITION>

  <DEFINITION>
    <FOR>Steakhouses</FOR>
    <GIVEN>Wine Bars</GIVEN>
    <TABLE>0.638367142499 0.361632857501 0.379594075699 0.620405924301 </TABLE>
  </DEFINITION>

  <DEFINITION>
    <FOR>Middle Eastern</FOR>
    <GIVEN>Greek</GIVEN>
    <GIVEN>Mediterranean</GIVEN>
    <TABLE>0.801126760563 0.198873239437 0.410447761194 0.589552238806 0.668304668305 0.331695331695 0.24182444062 0.75817555938 </TABLE>
  </DEFINITION>

  <DEFINITION>
    <FOR>American (New)</FOR>
    <GIVEN>Breakfast Brunch</GIVEN>
    <GIVEN>Wine Bars</GIVEN>
    <TABLE>0.772080714522 0.227919285478 0.567015995587 0.432984004413 0.460778617083 0.539221382917 0.233226837061 0.766773162939 </TABLE>
  </DEFINITION>

  <DEFINITION>
    <FOR>Vegan</FOR>
    <GIVEN>Vegetarian</GIVEN>
    <TABLE>0.796666666667 0.203333333333 0.327881619938 0.672118380062 </TABLE>
  </DEFINITION>

  <DEFINITION>
    <FOR>Indian</FOR>
    <TABLE>0.511194029851 0.488805970149 </TABLE>
  </DEFINITION>

  <DEFINITION>
    <FOR>Japanese</FOR>
    <GIVEN>Sushi Bars</GIVEN>
    <TABLE>0.813026685393 0.186973314607 0.210860087198 0.789139912802 </TABLE>
  </DEFINITION>

  <DEFINITION>
    <FOR>Chinese</FOR>
    <GIVEN>Thai</GIVEN>
    <TABLE>0.630676949443 0.369323050557 0.387541345094 0.612458654906 </TABLE>
  </DEFINITION>

  <DEFINITION>
    <FOR>Fast Food</FOR>
    <GIVEN>Mexican</GIVEN>
    <TABLE>0.622110552764 0.377889447236 0.363254477117 0.636745522883 </TABLE>
  </DEFINITION>

  <DEFINITION>
    <FOR>Mediterranean</FOR>
    <TABLE>0.559790807603 0.440209192397 </TABLE>
  </DEFINITION>

  <DEFINITION>
    <FOR>Soup</FOR>
    <GIVEN>Salad</GIVEN>
    <TABLE>0.744355679055 0.255644320945 0.297376093294 0.702623906706 </TABLE>
  </DEFINITION>

  <DEFINITION>
    <FOR>Delis</FOR>
    <GIVEN>Comfort Food</GIVEN>
    <GIVEN>Sandwiches</GIVEN>
    <GIVEN>Specialty Food</GIVEN>
    <TABLE>0.794838709677 0.205161290323 0.658362989324 0.341637010676 0.485815602837 0.514184397163 0.349514563107 0.650485436893 0.687747035573 0.312252964427 0.55612244898 0.44387755102 0.414893617021 0.585106382979 0.22454308094 0.77545691906 </TABLE>
  </DEFINITION>

  <DEFINITION>
    <FOR>Buffets</FOR>
    <GIVEN>Indian</GIVEN>
    <TABLE>0.689164086687 0.310835913313 0.365543547362 0.634456452638 </TABLE>
  </DEFINITION>

  <DEFINITION>
    <FOR>Wine Bars</FOR>
    <GIVEN>Beer</GIVEN>
    <TABLE>0.644649257552 0.355350742448 0.363548698168 0.636451301832 </TABLE>
  </DEFINITION>

  <DEFINITION>
    <FOR>Greek</FOR>
    <GIVEN>Mediterranean</GIVEN>
    <TABLE>0.832878953108 0.167121046892 0.224416517056 0.775583482944 </TABLE>
  </DEFINITION>

  <DEFINITION>
    <FOR>Vegetarian</FOR>
    <TABLE>0.577173804032 0.422826195968 </TABLE>
  </DEFINITION>

  <DEFINITION>
    <FOR>Comfort Food</FOR>
    <TABLE>0.59640184684 0.40359815316 </TABLE>
  </DEFINITION>

  <DEFINITION>
    <FOR>Desserts</FOR>
    <GIVEN>Bakeries</GIVEN>
    <GIVEN>Ice Cream Frozen Yogurt</GIVEN>
    <TABLE>0.765550239234 0.234449760766 0.475894245723 0.524105754277 0.53986013986 0.46013986014 0.299101412067 0.700898587933 </TABLE>
  </DEFINITION>

  <DEFINITION>
    <FOR>Mexican</FOR>
    <TABLE>0.530922509225 0.469077490775 </TABLE>
  </DEFINITION>

  <DEFINITION>
    <FOR>Asian Fusion</FOR>
    <GIVEN>Chinese</GIVEN>
    <GIVEN>Japanese</GIVEN>
    <GIVEN>Korean</GIVEN>
    <GIVEN>Thai</GIVEN>
    <TABLE>0.887804878049 0.112195121951 0.736607142857 0.263392857143 0.72972972973 0.27027027027 0.684615384615 0.315384615385 0.747663551402 0.252336448598 0.572580645161 0.427419354839 0.522222222222 0.477777777778 0.4296875 0.5703125 0.729166666667 0.270833333333 0.543859649123 0.456140350877 0.538461538462 0.461538461538 0.344827586207 0.655172413793 0.559523809524 0.440476190476 0.365979381443 0.634020618557 0.316872427984 0.683127572016 0.172566371681 0.827433628319 </TABLE>
  </DEFINITION>

  <DEFINITION>
    <FOR>Beer</FOR>
    <TABLE>0.554916212397 0.445083787603 </TABLE>
  </DEFINITION>

  <DEFINITION>
    <FOR>Thai</FOR>
    <TABLE>0.555338608571 0.444661391429 </TABLE>
  </DEFINITION>

  <DEFINITION>
    <FOR>Barbeque</FOR>
    <GIVEN>Steakhouses</GIVEN>
    <TABLE>0.65603985056 0.34396014944 0.425608194622 0.574391805378 </TABLE>
  </DEFINITION>

  <DEFINITION>
    <FOR>Noodles</FOR>
    <GIVEN>Chinese</GIVEN>
    <GIVEN>Japanese</GIVEN>
    <TABLE>0.79327259986 0.20672740014 0.541490857947 0.458509142053 0.592171717172 0.407828282828 0.344562078922 0.655437921078 </TABLE>
  </DEFINITION>

  <DEFINITION>
    <FOR>Italian</FOR>
    <GIVEN>Salad</GIVEN>
    <TABLE>0.621937842779 0.378062157221 0.387486278814 0.612513721186 </TABLE>
  </DEFINITION>

  <DEFINITION>
    <FOR>Breakfast Brunch</FOR>
    <GIVEN>Diners</GIVEN>
    <TABLE>0.685051958433 0.314948041567 0.365853658537 0.634146341463 </TABLE>
  </DEFINITION>

  <DEFINITION>
    <FOR>Tapas Bars</FOR>
    <TABLE>0.566945606695 0.433054393305 </TABLE>
  </DEFINITION>

  <DEFINITION>
    <FOR>Korean</FOR>
    <TABLE>0.558916403523 0.441083596477 </TABLE>
  </DEFINITION>

  <DEFINITION>
    <FOR>American (Traditional)</FOR>
    <GIVEN>American (New)</GIVEN>
    <GIVEN>Breakfast Brunch</GIVEN>
    <GIVEN>Steakhouses</GIVEN>
    <TABLE>0.843465045593 0.156534954407 0.668825910931 0.331174089069 0.64796479648 0.35203520352 0.402631578947 0.597368421053 0.597897503285 0.402102496715 0.421221864952 0.578778135048 0.350198412698 0.649801587302 0.153065929 0.846934071 </TABLE>
  </DEFINITION>

  <DEFINITION>
    <FOR>Salad</FOR>
    <GIVEN>Sandwiches</GIVEN>
    <TABLE>0.706282441382 0.293717558618 0.359131859132 0.640868140868 </TABLE>
  </DEFINITION>

  <DEFINITION>
    <FOR>Ice Cream Frozen Yogurt</FOR>
    <TABLE>0.543449575872 0.456550424128 </TABLE>
  </DEFINITION>

  <DEFINITION>
    <FOR>Hot Dogs</FOR>
    <GIVEN>Ethnic Food</GIVEN>
    <TABLE>0.666370106762 0.333629893238 0.476300578035 0.523699421965 </TABLE>
  </DEFINITION>

</NETWORK>
</BIF>
