<?xml version="1.0"?>
<!-- DTD for the XMLBIF 0.3 format -->
<!DOCTYPE BIF [
	<!ELEMENT BIF ( NETWORK )*>
	      <!ATTLIST BIF VERSION CDATA #REQUIRED>
	<!ELEMENT NETWORK ( NAME, ( PROPERTY | VARIABLE | DEFINITION )* )>
	<!ELEMENT NAME (#PCDATA)>
	<!ELEMENT VARIABLE ( NAME, ( OUTCOME |  PROPERTY )* ) >
	      <!ATTLIST VARIABLE TYPE (nature|decision|utility) "nature">
	<!ELEMENT OUTCOME (#PCDATA)>
	<!ELEMENT DEFINITION ( FOR | GIVEN | TABLE | PROPERTY )* >
	<!ELEMENT FOR (#PCDATA)>
	<!ELEMENT GIVEN (#PCDATA)>
	<!ELEMENT TABLE (#PCDATA)>
	<!ELEMENT PROPERTY (#PCDATA)>
]>


<BIF VERSION="0.3">
<NETWORK>
<NAME>UNTITLED</NAME>
<VARIABLE TYPE="nature">
<NAME>Diners</NAME>
<OUTCOME>False</OUTCOME>
<OUTCOME>True</OUTCOME>
<PROPERTY>position = (576,90)</PROPERTY>
</VARIABLE>
<VARIABLE TYPE="nature">
<NAME>CoffeeTea</NAME>
<OUTCOME>False</OUTCOME>
<OUTCOME>True</OUTCOME>
<PROPERTY>position = (640,90)</PROPERTY>
</VARIABLE>
<VARIABLE TYPE="nature">
<NAME>Noodles</NAME>
<OUTCOME>False</OUTCOME>
<OUTCOME>True</OUTCOME>
<PROPERTY>position = (320,270)</PROPERTY>
</VARIABLE>
<VARIABLE TYPE="nature">
<NAME>FastFood</NAME>
<OUTCOME>False</OUTCOME>
<OUTCOME>True</OUTCOME>
<PROPERTY>position = (576,180)</PROPERTY>
</VARIABLE>
<VARIABLE TYPE="nature">
<NAME>Sandwiches</NAME>
<OUTCOME>False</OUTCOME>
<OUTCOME>True</OUTCOME>
<PROPERTY>position = (704,360)</PROPERTY>
</VARIABLE>
<VARIABLE TYPE="nature">
<NAME>Bakeries</NAME>
<OUTCOME>False</OUTCOME>
<OUTCOME>True</OUTCOME>
<PROPERTY>position = (512,180)</PROPERTY>
</VARIABLE>
<VARIABLE TYPE="nature">
<NAME>French</NAME>
<OUTCOME>False</OUTCOME>
<OUTCOME>True</OUTCOME>
<PROPERTY>position = (832,540)</PROPERTY>
</VARIABLE>
<VARIABLE TYPE="nature">
<NAME>Salad</NAME>
<OUTCOME>False</OUTCOME>
<OUTCOME>True</OUTCOME>
<PROPERTY>position = (1280,180)</PROPERTY>
</VARIABLE>
<VARIABLE TYPE="nature">
<NAME>BreakfastBrunch</NAME>
<OUTCOME>False</OUTCOME>
<OUTCOME>True</OUTCOME>
<PROPERTY>position = (576,0)</PROPERTY>
</VARIABLE>
<VARIABLE TYPE="nature">
<NAME>Mediterranean</NAME>
<OUTCOME>False</OUTCOME>
<OUTCOME>True</OUTCOME>
<PROPERTY>position = (1088,90)</PROPERTY>
</VARIABLE>
<VARIABLE TYPE="nature">
<NAME>EthnicFood</NAME>
<OUTCOME>False</OUTCOME>
<OUTCOME>True</OUTCOME>
<PROPERTY>position = (1152,90)</PROPERTY>
</VARIABLE>
<VARIABLE TYPE="nature">
<NAME>Burgers</NAME>
<OUTCOME>False</OUTCOME>
<OUTCOME>True</OUTCOME>
<PROPERTY>position = (832,270)</PROPERTY>
</VARIABLE>
<VARIABLE TYPE="nature">
<NAME>Korean</NAME>
<OUTCOME>False</OUTCOME>
<OUTCOME>True</OUTCOME>
<PROPERTY>position = (192,90)</PROPERTY>
</VARIABLE>
<VARIABLE TYPE="nature">
<NAME>Steakhouses</NAME>
<OUTCOME>False</OUTCOME>
<OUTCOME>True</OUTCOME>
<PROPERTY>position = (832,360)</PROPERTY>
</VARIABLE>
<VARIABLE TYPE="nature">
<NAME>TapasSmallPlates</NAME>
<OUTCOME>False</OUTCOME>
<OUTCOME>True</OUTCOME>
<PROPERTY>position = (64,270)</PROPERTY>
</VARIABLE>
<VARIABLE TYPE="nature">
<NAME>Japanese</NAME>
<OUTCOME>False</OUTCOME>
<OUTCOME>True</OUTCOME>
<PROPERTY>position = (320,180)</PROPERTY>
</VARIABLE>
<VARIABLE TYPE="nature">
<NAME>TexMex</NAME>
<OUTCOME>False</OUTCOME>
<OUTCOME>True</OUTCOME>
<PROPERTY>position = (0,90)</PROPERTY>
</VARIABLE>
<VARIABLE TYPE="nature">
<NAME>AmericanNew</NAME>
<OUTCOME>False</OUTCOME>
<OUTCOME>True</OUTCOME>
<PROPERTY>position = (704,180)</PROPERTY>
</VARIABLE>
<VARIABLE TYPE="nature">
<NAME>Vegetarian</NAME>
<OUTCOME>False</OUTCOME>
<OUTCOME>True</OUTCOME>
<PROPERTY>position = (1280,90)</PROPERTY>
</VARIABLE>
<VARIABLE TYPE="nature">
<NAME>Vegan</NAME>
<OUTCOME>False</OUTCOME>
<OUTCOME>True</OUTCOME>
<PROPERTY>position = (1344,180)</PROPERTY>
</VARIABLE>
<VARIABLE TYPE="nature">
<NAME>HotDogs</NAME>
<OUTCOME>False</OUTCOME>
<OUTCOME>True</OUTCOME>
<PROPERTY>position = (512,270)</PROPERTY>
</VARIABLE>
<VARIABLE TYPE="nature">
<NAME>MiddleEastern</NAME>
<OUTCOME>False</OUTCOME>
<OUTCOME>True</OUTCOME>
<PROPERTY>position = (1216,90)</PROPERTY>
</VARIABLE>
<VARIABLE TYPE="nature">
<NAME>Delis</NAME>
<OUTCOME>False</OUTCOME>
<OUTCOME>True</OUTCOME>
<PROPERTY>position = (768,270)</PROPERTY>
</VARIABLE>
<VARIABLE TYPE="nature">
<NAME>LatinAmerican</NAME>
<OUTCOME>False</OUTCOME>
<OUTCOME>True</OUTCOME>
<PROPERTY>position = (64,90)</PROPERTY>
</VARIABLE>
<VARIABLE TYPE="nature">
<NAME>Soup</NAME>
<OUTCOME>False</OUTCOME>
<OUTCOME>True</OUTCOME>
<PROPERTY>position = (704,450)</PROPERTY>
</VARIABLE>
<VARIABLE TYPE="nature">
<NAME>Beer</NAME>
<OUTCOME>False</OUTCOME>
<OUTCOME>True</OUTCOME>
<PROPERTY>position = (704,0)</PROPERTY>
</VARIABLE>
<VARIABLE TYPE="nature">
<NAME>ChickenWings</NAME>
<OUTCOME>False</OUTCOME>
<OUTCOME>True</OUTCOME>
<PROPERTY>position = (640,270)</PROPERTY>
</VARIABLE>
<VARIABLE TYPE="nature">
<NAME>Southern</NAME>
<OUTCOME>False</OUTCOME>
<OUTCOME>True</OUTCOME>
<PROPERTY>position = (896,0)</PROPERTY>
</VARIABLE>
<VARIABLE TYPE="nature">
<NAME>Indian</NAME>
<OUTCOME>False</OUTCOME>
<OUTCOME>True</OUTCOME>
<PROPERTY>position = (1216,180)</PROPERTY>
</VARIABLE>
<VARIABLE TYPE="nature">
<NAME>WineBars</NAME>
<OUTCOME>False</OUTCOME>
<OUTCOME>True</OUTCOME>
<PROPERTY>position = (704,90)</PROPERTY>
</VARIABLE>
<VARIABLE TYPE="nature">
<NAME>Desserts</NAME>
<OUTCOME>False</OUTCOME>
<OUTCOME>True</OUTCOME>
<PROPERTY>position = (448,270)</PROPERTY>
</VARIABLE>
<VARIABLE TYPE="nature">
<NAME>Chinese</NAME>
<OUTCOME>False</OUTCOME>
<OUTCOME>True</OUTCOME>
<PROPERTY>position = (256,90)</PROPERTY>
</VARIABLE>
<VARIABLE TYPE="nature">
<NAME>Thai</NAME>
<OUTCOME>False</OUTCOME>
<OUTCOME>True</OUTCOME>
<PROPERTY>position = (320,90)</PROPERTY>
</VARIABLE>
<VARIABLE TYPE="nature">
<NAME>Buffets</NAME>
<OUTCOME>False</OUTCOME>
<OUTCOME>True</OUTCOME>
<PROPERTY>position = (1216,270)</PROPERTY>
</VARIABLE>
<VARIABLE TYPE="nature">
<NAME>Seafood</NAME>
<OUTCOME>False</OUTCOME>
<OUTCOME>True</OUTCOME>
<PROPERTY>position = (768,0)</PROPERTY>
</VARIABLE>
<VARIABLE TYPE="nature">
<NAME>AmericanTraditional</NAME>
<OUTCOME>False</OUTCOME>
<OUTCOME>True</OUTCOME>
<PROPERTY>position = (768,90)</PROPERTY>
</VARIABLE>
<VARIABLE TYPE="nature">
<NAME>SushiBars</NAME>
<OUTCOME>False</OUTCOME>
<OUTCOME>True</OUTCOME>
<PROPERTY>position = (448,90)</PROPERTY>
</VARIABLE>
<VARIABLE TYPE="nature">
<NAME>Barbeque</NAME>
<OUTCOME>False</OUTCOME>
<OUTCOME>True</OUTCOME>
<PROPERTY>position = (896,450)</PROPERTY>
</VARIABLE>
<VARIABLE TYPE="nature">
<NAME>SpecialtyFood</NAME>
<OUTCOME>False</OUTCOME>
<OUTCOME>True</OUTCOME>
<PROPERTY>position = (1152,0)</PROPERTY>
</VARIABLE>
<VARIABLE TYPE="nature">
<NAME>Cafes</NAME>
<OUTCOME>False</OUTCOME>
<OUTCOME>True</OUTCOME>
<PROPERTY>position = (512,90)</PROPERTY>
</VARIABLE>
<VARIABLE TYPE="nature">
<NAME>AsianFusion</NAME>
<OUTCOME>False</OUTCOME>
<OUTCOME>True</OUTCOME>
<PROPERTY>position = (320,0)</PROPERTY>
</VARIABLE>
<VARIABLE TYPE="nature">
<NAME>Vietnamese</NAME>
<OUTCOME>False</OUTCOME>
<OUTCOME>True</OUTCOME>
<PROPERTY>position = (384,90)</PROPERTY>
</VARIABLE>
<VARIABLE TYPE="nature">
<NAME>Italian</NAME>
<OUTCOME>False</OUTCOME>
<OUTCOME>True</OUTCOME>
<PROPERTY>position = (832,450)</PROPERTY>
</VARIABLE>
<VARIABLE TYPE="nature">
<NAME>Pizza</NAME>
<OUTCOME>False</OUTCOME>
<OUTCOME>True</OUTCOME>
<PROPERTY>position = (704,270)</PROPERTY>
</VARIABLE>
<VARIABLE TYPE="nature">
<NAME>Mexican</NAME>
<OUTCOME>False</OUTCOME>
<OUTCOME>True</OUTCOME>
<PROPERTY>position = (64,0)</PROPERTY>
</VARIABLE>
<VARIABLE TYPE="nature">
<NAME>Greek</NAME>
<OUTCOME>False</OUTCOME>
<OUTCOME>True</OUTCOME>
<PROPERTY>position = (1088,180)</PROPERTY>
</VARIABLE>
<VARIABLE TYPE="nature">
<NAME>ComfortFood</NAME>
<OUTCOME>False</OUTCOME>
<OUTCOME>True</OUTCOME>
<PROPERTY>position = (832,90)</PROPERTY>
</VARIABLE>
<VARIABLE TYPE="nature">
<NAME>IceCreamFrozenYogurt</NAME>
<OUTCOME>False</OUTCOME>
<OUTCOME>True</OUTCOME>
<PROPERTY>position = (448,360)</PROPERTY>
</VARIABLE>
<VARIABLE TYPE="nature">
<NAME>TapasBars</NAME>
<OUTCOME>False</OUTCOME>
<OUTCOME>True</OUTCOME>
<PROPERTY>position = (64,180)</PROPERTY>
</VARIABLE>
<VARIABLE TYPE="nature">
<NAME>JuiceBarsSmoothies</NAME>
<OUTCOME>False</OUTCOME>
<OUTCOME>True</OUTCOME>
<PROPERTY>position = (1280,0)</PROPERTY>
</VARIABLE>
<DEFINITION>
<FOR>Diners</FOR>
<GIVEN>BreakfastBrunch</GIVEN>
<TABLE>
0.699877501021 0.300122498979 
0.382153249273 0.617846750727 
</TABLE>
</DEFINITION>
<DEFINITION>
<FOR>CoffeeTea</FOR>
<GIVEN>BreakfastBrunch</GIVEN>
<TABLE>
0.693570687867 0.306429312133 
0.354154154154 0.645845845846 
</TABLE>
</DEFINITION>
<DEFINITION>
<FOR>Noodles</FOR>
<GIVEN>Japanese</GIVEN>
<TABLE>
0.719983207389 0.280016792611 
0.411185914034 0.588814085966 
</TABLE>
</DEFINITION>
<DEFINITION>
<FOR>FastFood</FOR>
<GIVEN>AmericanTraditional</GIVEN>
<GIVEN>Diners</GIVEN>
<GIVEN>SushiBars</GIVEN>
<TABLE>
0.648531951641 0.351468048359 
0.560855263158 0.439144736842 
0.595041322314 0.404958677686 
0.471751412429 0.528248587571 
0.507865168539 0.492134831461 
0.388679245283 0.611320754717 
0.40221402214 0.59778597786 
0.322429906542 0.677570093458 
</TABLE>
</DEFINITION>
<DEFINITION>
<FOR>Sandwiches</FOR>
<GIVEN>Burgers</GIVEN>
<GIVEN>Delis</GIVEN>
<GIVEN>FastFood</GIVEN>
<TABLE>
0.826024442847 0.173975557153 
0.715502555366 0.284497444634 
0.573394495413 0.426605504587 
0.389179755672 0.610820244328 
0.627490039841 0.372509960159 
0.506172839506 0.493827160494 
0.325635103926 0.674364896074 
0.187397708674 0.812602291326 
</TABLE>
</DEFINITION>
<DEFINITION>
<FOR>Bakeries</FOR>
<GIVEN>Cafes</GIVEN>
<TABLE>
0.683052749719 0.316947250281 
0.332965517241 0.667034482759 
</TABLE>
</DEFINITION>
<DEFINITION>
<FOR>French</FOR>
<GIVEN>Italian</GIVEN>
<TABLE>
0.607114201658 0.392885798342 
0.445083014049 0.554916985951 
</TABLE>
</DEFINITION>
<DEFINITION>
<FOR>Salad</FOR>
<GIVEN>Vegetarian</GIVEN>
<TABLE>
0.648530762167 0.351469237833 
0.412574288395 0.587425711605 
</TABLE>
</DEFINITION>
<DEFINITION>
<FOR>BreakfastBrunch</FOR>
<TABLE>
0.538412003349 0.461587996651 
</TABLE>
</DEFINITION>
<DEFINITION>
<FOR>Mediterranean</FOR>
<GIVEN>SpecialtyFood</GIVEN>
<TABLE>
0.649475524476 0.350524475524 
0.471408148678 0.528591851322 
</TABLE>
</DEFINITION>
<DEFINITION>
<FOR>EthnicFood</FOR>
<GIVEN>SpecialtyFood</GIVEN>
<TABLE>
0.89753801593 0.10246198407 
0.145273200347 0.854726799653 
</TABLE>
</DEFINITION>
<DEFINITION>
<FOR>Burgers</FOR>
<GIVEN>FastFood</GIVEN>
<TABLE>
0.682352941176 0.317647058824 
0.379219729129 0.620780270871 
</TABLE>
</DEFINITION>
<DEFINITION>
<FOR>Korean</FOR>
<GIVEN>AsianFusion</GIVEN>
<TABLE>
0.690043832185 0.309956167815 
0.378331900258 0.621668099742 
</TABLE>
</DEFINITION>
<DEFINITION>
<FOR>Steakhouses</FOR>
<GIVEN>AmericanTraditional</GIVEN>
<GIVEN>Burgers</GIVEN>
<TABLE>
0.69336505419 0.30663494581 
0.581686429513 0.418313570487 
0.424747174301 0.575252825699 
0.300511508951 0.699488491049 
</TABLE>
</DEFINITION>
<DEFINITION>
<FOR>TapasSmallPlates</FOR>
<GIVEN>TapasBars</GIVEN>
<TABLE>
0.782918149466 0.217081850534 
0.32380952381 0.67619047619 
</TABLE>
</DEFINITION>
<DEFINITION>
<FOR>Japanese</FOR>
<GIVEN>AsianFusion</GIVEN>
<GIVEN>SushiBars</GIVEN>
<TABLE>
0.848093841642 0.151906158358 
0.313784764208 0.686215235792 
0.719275549806 0.280724450194 
0.153049482163 0.846950517837 
</TABLE>
</DEFINITION>
<DEFINITION>
<FOR>TexMex</FOR>
<GIVEN>Mexican</GIVEN>
<TABLE>
0.719704952582 0.280295047418 
0.288546255507 0.711453744493 
</TABLE>
</DEFINITION>
<DEFINITION>
<FOR>AmericanNew</FOR>
<GIVEN>AmericanTraditional</GIVEN>
<TABLE>
0.703996726231 0.296003273769 
0.32601299103 0.67398700897 
</TABLE>
</DEFINITION>
<DEFINITION>
<FOR>Vegetarian</FOR>
<GIVEN>JuiceBarsSmoothies</GIVEN>
<TABLE>
0.696313364055 0.303686635945 
0.401704199635 0.598295800365 
</TABLE>
</DEFINITION>
<DEFINITION>
<FOR>Vegan</FOR>
<GIVEN>Vegetarian</GIVEN>
<TABLE>
0.796666666667 0.203333333333 
0.327881619938 0.672118380062 
</TABLE>
</DEFINITION>
<DEFINITION>
<FOR>HotDogs</FOR>
<GIVEN>FastFood</GIVEN>
<TABLE>
0.674975562072 0.325024437928 
0.456 0.544 
</TABLE>
</DEFINITION>
<DEFINITION>
<FOR>MiddleEastern</FOR>
<GIVEN>SpecialtyFood</GIVEN>
<TABLE>
0.663005272408 0.336994727592 
0.459517426273 0.540482573727 
</TABLE>
</DEFINITION>
<DEFINITION>
<FOR>Delis</FOR>
<GIVEN>FastFood</GIVEN>
<TABLE>
0.634031904911 0.365968095089 
0.421036677781 0.578963322219 
</TABLE>
</DEFINITION>
<DEFINITION>
<FOR>LatinAmerican</FOR>
<GIVEN>Mexican</GIVEN>
<TABLE>
0.70910464677 0.29089535323 
0.441891294741 0.558108705259 
</TABLE>
</DEFINITION>
<DEFINITION>
<FOR>Soup</FOR>
<GIVEN>Sandwiches</GIVEN>
<TABLE>
0.689098660171 0.310901339829 
0.374405850091 0.625594149909 
</TABLE>
</DEFINITION>
<DEFINITION>
<FOR>Beer</FOR>
<TABLE>
0.554916212397 0.445083787603 
</TABLE>
</DEFINITION>
<DEFINITION>
<FOR>ChickenWings</FOR>
<GIVEN>FastFood</GIVEN>
<TABLE>
0.637479806139 0.362520193861 
0.399638336347 0.600361663653 
</TABLE>
</DEFINITION>
<DEFINITION>
<FOR>Southern</FOR>
<TABLE>
0.562832800852 0.437167199148 
</TABLE>
</DEFINITION>
<DEFINITION>
<FOR>Indian</FOR>
<GIVEN>EthnicFood</GIVEN>
<GIVEN>Vegetarian</GIVEN>
<TABLE>
0.65274151436 0.34725848564 
0.480093676815 0.519906323185 
0.525531914894 0.474468085106 
0.3125 0.6875 
</TABLE>
</DEFINITION>
<DEFINITION>
<FOR>WineBars</FOR>
<GIVEN>Beer</GIVEN>
<TABLE>
0.644649257552 0.355350742448 
0.363548698168 0.636451301832 
</TABLE>
</DEFINITION>
<DEFINITION>
<FOR>Desserts</FOR>
<GIVEN>Bakeries</GIVEN>
<TABLE>
0.666760802033 0.333239197967 
0.406568877551 0.593431122449 
</TABLE>
</DEFINITION>
<DEFINITION>
<FOR>Chinese</FOR>
<GIVEN>AsianFusion</GIVEN>
<TABLE>
0.682340463143 0.317659536857 
0.3164887824 0.6835112176 
</TABLE>
</DEFINITION>
<DEFINITION>
<FOR>Thai</FOR>
<GIVEN>AsianFusion</GIVEN>
<TABLE>
0.677266867211 0.322733132789 
0.418082191781 0.581917808219 
</TABLE>
</DEFINITION>
<DEFINITION>
<FOR>Buffets</FOR>
<GIVEN>Indian</GIVEN>
<GIVEN>Salad</GIVEN>
<TABLE>
0.730523627075 0.269476372925 
0.633257403189 0.366742596811 
0.418604651163 0.581395348837 
0.323268206039 0.676731793961 
</TABLE>
</DEFINITION>
<DEFINITION>
<FOR>Seafood</FOR>
<TABLE>
0.520462427746 0.479537572254 
</TABLE>
</DEFINITION>
<DEFINITION>
<FOR>AmericanTraditional</FOR>
<GIVEN>Seafood</GIVEN>
<TABLE>
0.670975684826 0.329024315174 
0.383589059373 0.616410940627 
</TABLE>
</DEFINITION>
<DEFINITION>
<FOR>SushiBars</FOR>
<GIVEN>AsianFusion</GIVEN>
<TABLE>
0.670860685631 0.329139314369 
0.365913120567 0.634086879433 
</TABLE>
</DEFINITION>
<DEFINITION>
<FOR>Barbeque</FOR>
<GIVEN>Southern</GIVEN>
<GIVEN>Steakhouses</GIVEN>
<TABLE>
0.774805867127 0.225194132873 
0.567328918322 0.432671081678 
0.526315789474 0.473684210526 
0.312703583062 0.687296416938 
</TABLE>
</DEFINITION>
<DEFINITION>
<FOR>SpecialtyFood</FOR>
<TABLE>
0.545072912064 0.454927087936 
</TABLE>
</DEFINITION>
<DEFINITION>
<FOR>Cafes</FOR>
<GIVEN>BreakfastBrunch</GIVEN>
<TABLE>
0.698136840457 0.301863159543 
0.380943672275 0.619056327725 
</TABLE>
</DEFINITION>
<DEFINITION>
<FOR>AsianFusion</FOR>
<TABLE>
0.547891145277 0.452108854723 
</TABLE>
</DEFINITION>
<DEFINITION>
<FOR>Vietnamese</FOR>
<GIVEN>AsianFusion</GIVEN>
<TABLE>
0.65756893641 0.34243106359 
0.427041004802 0.572958995198 
</TABLE>
</DEFINITION>
<DEFINITION>
<FOR>Italian</FOR>
<GIVEN>Steakhouses</GIVEN>
<TABLE>
0.618645657475 0.381354342525 
0.412116381028 0.587883618972 
</TABLE>
</DEFINITION>
<DEFINITION>
<FOR>Pizza</FOR>
<GIVEN>FastFood</GIVEN>
<TABLE>
0.611088295688 0.388911704312 
0.416752418193 0.583247581807 
</TABLE>
</DEFINITION>
<DEFINITION>
<FOR>Mexican</FOR>
<TABLE>
0.530922509225 0.469077490775 
</TABLE>
</DEFINITION>
<DEFINITION>
<FOR>Greek</FOR>
<GIVEN>Mediterranean</GIVEN>
<TABLE>
0.832878953108 0.167121046892 
0.224416517056 0.775583482944 
</TABLE>
</DEFINITION>
<DEFINITION>
<FOR>ComfortFood</FOR>
<GIVEN>Southern</GIVEN>
<TABLE>
0.696774193548 0.303225806452 
0.481389578164 0.518610421836 
</TABLE>
</DEFINITION>
<DEFINITION>
<FOR>IceCreamFrozenYogurt</FOR>
<GIVEN>Desserts</GIVEN>
<TABLE>
0.685352622061 0.314647377939 
0.378691983122 0.621308016878 
</TABLE>
</DEFINITION>
<DEFINITION>
<FOR>TapasBars</FOR>
<GIVEN>LatinAmerican</GIVEN>
<TABLE>
0.610743801653 0.389256198347 
0.456117021277 0.543882978723 
</TABLE>
</DEFINITION>
<DEFINITION>
<FOR>JuiceBarsSmoothies</FOR>
<TABLE>
0.561902825778 0.438097174222 
</TABLE>
</DEFINITION>
</NETWORK>
</BIF>
