<?xml version="1.0" encoding="US-ASCII"?>

<!--
  Bayesian network in XMLBIF v0.3 (BayesNet Interchange Format)
  Produced by SamIam http://reasoning.cs.ucla.edu/samiam
  Output created Mar 16, 2017 2:44:37 PM
-->

<BIF VERSION="0.3">
<NETWORK>
  <NAME>UNTITLED</NAME>

  <VARIABLE TYPE="nature">
    <NAME>Japanese</NAME>
    <OUTCOME>False</OUTCOME>
    <OUTCOME>True</OUTCOME>
    <PROPERTY>position = (1280, 0)</PROPERTY>
  </VARIABLE>

  <VARIABLE TYPE="nature">
    <NAME>WineBars</NAME>
    <OUTCOME>False</OUTCOME>
    <OUTCOME>True</OUTCOME>
    <PROPERTY>position = (896, 180)</PROPERTY>
  </VARIABLE>

  <VARIABLE TYPE="nature">
    <NAME>AmericanNew</NAME>
    <OUTCOME>False</OUTCOME>
    <OUTCOME>True</OUTCOME>
    <PROPERTY>position = (640, 180)</PROPERTY>
  </VARIABLE>

  <VARIABLE TYPE="nature">
    <NAME>Mexican</NAME>
    <OUTCOME>False</OUTCOME>
    <OUTCOME>True</OUTCOME>
    <PROPERTY>position = (1088, 0)</PROPERTY>
  </VARIABLE>

  <VARIABLE TYPE="nature">
    <NAME>EthnicFood</NAME>
    <OUTCOME>False</OUTCOME>
    <OUTCOME>True</OUTCOME>
    <PROPERTY>position = (704, 0)</PROPERTY>
  </VARIABLE>

  <VARIABLE TYPE="nature">
    <NAME>Vietnamese</NAME>
    <OUTCOME>False</OUTCOME>
    <OUTCOME>True</OUTCOME>
    <PROPERTY>position = (1536, 180)</PROPERTY>
  </VARIABLE>

  <VARIABLE TYPE="nature">
    <NAME>Vegan</NAME>
    <OUTCOME>False</OUTCOME>
    <OUTCOME>True</OUTCOME>
    <PROPERTY>position = (1600, 90)</PROPERTY>
  </VARIABLE>

  <VARIABLE TYPE="nature">
    <NAME>TapasSmallPlates</NAME>
    <OUTCOME>False</OUTCOME>
    <OUTCOME>True</OUTCOME>
    <PROPERTY>position = (1664, 90)</PROPERTY>
  </VARIABLE>

  <VARIABLE TYPE="nature">
    <NAME>Vegetarian</NAME>
    <OUTCOME>False</OUTCOME>
    <OUTCOME>True</OUTCOME>
    <PROPERTY>position = (1600, 0)</PROPERTY>
  </VARIABLE>

  <VARIABLE TYPE="nature">
    <NAME>BreakfastBrunch</NAME>
    <OUTCOME>False</OUTCOME>
    <OUTCOME>True</OUTCOME>
    <PROPERTY>position = (512, 0)</PROPERTY>
  </VARIABLE>

  <VARIABLE TYPE="nature">
    <NAME>IceCreamFrozenYogurt</NAME>
    <OUTCOME>False</OUTCOME>
    <OUTCOME>True</OUTCOME>
    <PROPERTY>position = (128, 90)</PROPERTY>
  </VARIABLE>

  <VARIABLE TYPE="nature">
    <NAME>Diners</NAME>
    <OUTCOME>False</OUTCOME>
    <OUTCOME>True</OUTCOME>
    <PROPERTY>position = (362, 206)</PROPERTY>
  </VARIABLE>

  <VARIABLE TYPE="nature">
    <NAME>Chinese</NAME>
    <OUTCOME>False</OUTCOME>
    <OUTCOME>True</OUTCOME>
    <PROPERTY>position = (1408, 0)</PROPERTY>
  </VARIABLE>

  <VARIABLE TYPE="nature">
    <NAME>Barbeque</NAME>
    <OUTCOME>False</OUTCOME>
    <OUTCOME>True</OUTCOME>
    <PROPERTY>position = (1024, 90)</PROPERTY>
  </VARIABLE>

  <VARIABLE TYPE="nature">
    <NAME>Burgers</NAME>
    <OUTCOME>False</OUTCOME>
    <OUTCOME>True</OUTCOME>
    <PROPERTY>position = (1792, 90)</PROPERTY>
  </VARIABLE>

  <VARIABLE TYPE="nature">
    <NAME>Greek</NAME>
    <OUTCOME>False</OUTCOME>
    <OUTCOME>True</OUTCOME>
    <PROPERTY>position = (320, 90)</PROPERTY>
  </VARIABLE>

  <VARIABLE TYPE="nature">
    <NAME>AmericanTraditional</NAME>
    <OUTCOME>False</OUTCOME>
    <OUTCOME>True</OUTCOME>
    <PROPERTY>position = (605, 46)</PROPERTY>
  </VARIABLE>

  <VARIABLE TYPE="nature">
    <NAME>Desserts</NAME>
    <OUTCOME>False</OUTCOME>
    <OUTCOME>True</OUTCOME>
    <PROPERTY>position = (128, 0)</PROPERTY>
  </VARIABLE>

  <VARIABLE TYPE="nature">
    <NAME>TexMex</NAME>
    <OUTCOME>False</OUTCOME>
    <OUTCOME>True</OUTCOME>
    <PROPERTY>position = (1152, 90)</PROPERTY>
  </VARIABLE>

  <VARIABLE TYPE="nature">
    <NAME>Indian</NAME>
    <OUTCOME>False</OUTCOME>
    <OUTCOME>True</OUTCOME>
    <PROPERTY>position = (192, 0)</PROPERTY>
  </VARIABLE>

  <VARIABLE TYPE="nature">
    <NAME>Salad</NAME>
    <OUTCOME>False</OUTCOME>
    <OUTCOME>True</OUTCOME>
    <PROPERTY>position = (512, 360)</PROPERTY>
  </VARIABLE>

  <VARIABLE TYPE="nature">
    <NAME>Steakhouses</NAME>
    <OUTCOME>False</OUTCOME>
    <OUTCOME>True</OUTCOME>
    <PROPERTY>position = (832, 270)</PROPERTY>
  </VARIABLE>

  <VARIABLE TYPE="nature">
    <NAME>Southern</NAME>
    <OUTCOME>False</OUTCOME>
    <OUTCOME>True</OUTCOME>
    <PROPERTY>position = (1024, 0)</PROPERTY>
  </VARIABLE>

  <VARIABLE TYPE="nature">
    <NAME>Morning</NAME>
    <OUTCOME>False</OUTCOME>
    <OUTCOME>True</OUTCOME>
    <PROPERTY>position = (417, 131)</PROPERTY>
  </VARIABLE>

  <VARIABLE TYPE="nature">
    <NAME>SushiBars</NAME>
    <OUTCOME>False</OUTCOME>
    <OUTCOME>True</OUTCOME>
    <PROPERTY>position = (1216, 90)</PROPERTY>
  </VARIABLE>

  <VARIABLE TYPE="nature">
    <NAME>MiddleEastern</NAME>
    <OUTCOME>False</OUTCOME>
    <OUTCOME>True</OUTCOME>
    <PROPERTY>position = (202, 260)</PROPERTY>
  </VARIABLE>

  <VARIABLE TYPE="nature">
    <NAME>Noodles</NAME>
    <OUTCOME>False</OUTCOME>
    <OUTCOME>True</OUTCOME>
    <PROPERTY>position = (1344, 90)</PROPERTY>
  </VARIABLE>

  <VARIABLE TYPE="nature">
    <NAME>Italian</NAME>
    <OUTCOME>False</OUTCOME>
    <OUTCOME>True</OUTCOME>
    <PROPERTY>position = (512, 270)</PROPERTY>
  </VARIABLE>

  <VARIABLE TYPE="nature">
    <NAME>Asian</NAME>
    <OUTCOME>False</OUTCOME>
    <OUTCOME>True</OUTCOME>
    <PROPERTY>position = (1239, 319)</PROPERTY>
  </VARIABLE>

  <VARIABLE TYPE="nature">
    <NAME>Sandwiches</NAME>
    <OUTCOME>False</OUTCOME>
    <OUTCOME>True</OUTCOME>
    <PROPERTY>position = (512, 90)</PROPERTY>
  </VARIABLE>

  <VARIABLE TYPE="nature">
    <NAME>ChickenWings</NAME>
    <OUTCOME>False</OUTCOME>
    <OUTCOME>True</OUTCOME>
    <PROPERTY>position = (1600, 360)</PROPERTY>
  </VARIABLE>

  <VARIABLE TYPE="nature">
    <NAME>AsianFusion</NAME>
    <OUTCOME>False</OUTCOME>
    <OUTCOME>True</OUTCOME>
    <PROPERTY>position = (1408, 90)</PROPERTY>
  </VARIABLE>

  <VARIABLE TYPE="nature">
    <NAME>Buffets</NAME>
    <OUTCOME>False</OUTCOME>
    <OUTCOME>True</OUTCOME>
    <PROPERTY>position = (192, 90)</PROPERTY>
  </VARIABLE>

  <VARIABLE TYPE="nature">
    <NAME>Korean</NAME>
    <OUTCOME>False</OUTCOME>
    <OUTCOME>True</OUTCOME>
    <PROPERTY>position = (1408, 180)</PROPERTY>
  </VARIABLE>

  <VARIABLE TYPE="nature">
    <NAME>Fast</NAME>
    <OUTCOME>False</OUTCOME>
    <OUTCOME>True</OUTCOME>
    <PROPERTY>position = (1285, 497)</PROPERTY>
  </VARIABLE>

  <VARIABLE TYPE="nature">
    <NAME>Delis</NAME>
    <OUTCOME>False</OUTCOME>
    <OUTCOME>True</OUTCOME>
    <PROPERTY>position = (662, 265)</PROPERTY>
  </VARIABLE>

  <VARIABLE TYPE="nature">
    <NAME>Pizza</NAME>
    <OUTCOME>False</OUTCOME>
    <OUTCOME>True</OUTCOME>
    <PROPERTY>position = (512, 180)</PROPERTY>
  </VARIABLE>

  <VARIABLE TYPE="nature">
    <NAME>Cafes</NAME>
    <OUTCOME>False</OUTCOME>
    <OUTCOME>True</OUTCOME>
    <PROPERTY>position = (0, 90)</PROPERTY>
  </VARIABLE>

  <VARIABLE TYPE="nature">
    <NAME>HotDogs</NAME>
    <OUTCOME>False</OUTCOME>
    <OUTCOME>True</OUTCOME>
    <PROPERTY>position = (834, 99)</PROPERTY>
  </VARIABLE>

  <VARIABLE TYPE="nature">
    <NAME>CoffeeTea</NAME>
    <OUTCOME>False</OUTCOME>
    <OUTCOME>True</OUTCOME>
    <PROPERTY>position = (256, 180)</PROPERTY>
  </VARIABLE>

  <VARIABLE TYPE="nature">
    <NAME>Seafood</NAME>
    <OUTCOME>False</OUTCOME>
    <OUTCOME>True</OUTCOME>
    <PROPERTY>position = (832, 180)</PROPERTY>
  </VARIABLE>

  <VARIABLE TYPE="nature">
    <NAME>SpecialtyFood</NAME>
    <OUTCOME>False</OUTCOME>
    <OUTCOME>True</OUTCOME>
    <PROPERTY>position = (704, 90)</PROPERTY>
  </VARIABLE>

  <VARIABLE TYPE="nature">
    <NAME>Thai</NAME>
    <OUTCOME>False</OUTCOME>
    <OUTCOME>True</OUTCOME>
    <PROPERTY>position = (1536, 90)</PROPERTY>
  </VARIABLE>

  <VARIABLE TYPE="nature">
    <NAME>ComfortFood</NAME>
    <OUTCOME>False</OUTCOME>
    <OUTCOME>True</OUTCOME>
    <PROPERTY>position = (1664, 0)</PROPERTY>
  </VARIABLE>

  <VARIABLE TYPE="nature">
    <NAME>Bakeries</NAME>
    <OUTCOME>False</OUTCOME>
    <OUTCOME>True</OUTCOME>
    <PROPERTY>position = (0, 0)</PROPERTY>
  </VARIABLE>

  <VARIABLE TYPE="nature">
    <NAME>Soup</NAME>
    <OUTCOME>False</OUTCOME>
    <OUTCOME>True</OUTCOME>
    <PROPERTY>position = (512, 450)</PROPERTY>
  </VARIABLE>

  <VARIABLE TYPE="nature">
    <NAME>FastFood</NAME>
    <OUTCOME>False</OUTCOME>
    <OUTCOME>True</OUTCOME>
    <PROPERTY>position = (1792, 0)</PROPERTY>
  </VARIABLE>

  <VARIABLE TYPE="nature">
    <NAME>Beer</NAME>
    <OUTCOME>False</OUTCOME>
    <OUTCOME>True</OUTCOME>
    <PROPERTY>position = (960, 90)</PROPERTY>
  </VARIABLE>

  <VARIABLE TYPE="nature">
    <NAME>TapasBars</NAME>
    <OUTCOME>False</OUTCOME>
    <OUTCOME>True</OUTCOME>
    <PROPERTY>position = (1664, 180)</PROPERTY>
  </VARIABLE>

  <VARIABLE TYPE="nature">
    <NAME>Night</NAME>
    <OUTCOME>False</OUTCOME>
    <OUTCOME>True</OUTCOME>
    <PROPERTY>position = (896, 0)</PROPERTY>
  </VARIABLE>

  <VARIABLE TYPE="nature">
    <NAME>Mediterranean</NAME>
    <OUTCOME>False</OUTCOME>
    <OUTCOME>True</OUTCOME>
    <PROPERTY>position = (320, 0)</PROPERTY>
  </VARIABLE>

  <DEFINITION>
    <FOR>Japanese</FOR>
    <TABLE>0.528174305034 0.471825694966 </TABLE>
  </DEFINITION>

  <DEFINITION>
    <FOR>WineBars</FOR>
    <GIVEN>Beer</GIVEN>
    <GIVEN>Night</GIVEN>
    <TABLE>0.810167310167 0.189832689833 0.0 1.0 1.0 0.0 0.236405707675 0.763594292325 </TABLE>
  </DEFINITION>

  <DEFINITION>
    <FOR>AmericanNew</FOR>
    <GIVEN>AmericanTraditional</GIVEN>
    <GIVEN>BreakfastBrunch</GIVEN>
    <GIVEN>Night</GIVEN>
    <TABLE>0.808871258565 0.191128741435 0.655076495132 0.344923504868 0.605779153767 0.394220846233 0.386634844869 0.613365155131 0.551609322974 0.448390677026 0.365808823529 0.634191176471 0.298626174982 0.701373825018 0.156824146982 0.843175853018 </TABLE>
  </DEFINITION>

  <DEFINITION>
    <FOR>Mexican</FOR>
    <TABLE>0.530922509225 0.469077490775 </TABLE>
  </DEFINITION>

  <DEFINITION>
    <FOR>EthnicFood</FOR>
    <TABLE>0.555248618785 0.444751381215 </TABLE>
  </DEFINITION>

  <DEFINITION>
    <FOR>Vietnamese</FOR>
    <GIVEN>Thai</GIVEN>
    <TABLE>0.673173803526 0.326826196474 0.407249466951 0.592750533049 </TABLE>
  </DEFINITION>

  <DEFINITION>
    <FOR>Vegan</FOR>
    <GIVEN>Vegetarian</GIVEN>
    <TABLE>0.796666666667 0.203333333333 0.327881619938 0.672118380062 </TABLE>
  </DEFINITION>

  <DEFINITION>
    <FOR>TapasSmallPlates</FOR>
    <GIVEN>ComfortFood</GIVEN>
    <TABLE>0.64224137931 0.35775862069 0.459788789602 0.540211210398 </TABLE>
  </DEFINITION>

  <DEFINITION>
    <FOR>Vegetarian</FOR>
    <TABLE>0.577173804032 0.422826195968 </TABLE>
  </DEFINITION>

  <DEFINITION>
    <FOR>BreakfastBrunch</FOR>
    <TABLE>0.538412003349 0.461587996651 </TABLE>
  </DEFINITION>

  <DEFINITION>
    <FOR>IceCreamFrozenYogurt</FOR>
    <GIVEN>Desserts</GIVEN>
    <TABLE>0.685352622061 0.314647377939 0.378691983122 0.621308016878 </TABLE>
  </DEFINITION>

  <DEFINITION>
    <FOR>Diners</FOR>
    <GIVEN>Morning</GIVEN>
    <TABLE>0.64843873831 0.35156126169 0.336527828972 0.663472171028 </TABLE>
  </DEFINITION>

  <DEFINITION>
    <FOR>Chinese</FOR>
    <TABLE>0.513155730965 0.486844269035 </TABLE>
  </DEFINITION>

  <DEFINITION>
    <FOR>Barbeque</FOR>
    <GIVEN>Southern</GIVEN>
    <TABLE>0.677368212446 0.322631787554 0.403481822837 0.596518177163 </TABLE>
  </DEFINITION>

  <DEFINITION>
    <FOR>Burgers</FOR>
    <GIVEN>FastFood</GIVEN>
    <TABLE>0.682352941176 0.317647058824 0.379219729129 0.620780270871 </TABLE>
  </DEFINITION>

  <DEFINITION>
    <FOR>Greek</FOR>
    <GIVEN>Mediterranean</GIVEN>
    <TABLE>0.832878953108 0.167121046892 0.224416517056 0.775583482944 </TABLE>
  </DEFINITION>

  <DEFINITION>
    <FOR>AmericanTraditional</FOR>
    <GIVEN>BreakfastBrunch</GIVEN>
    <TABLE>0.696602248326 0.303397751674 0.341829303816 0.658170696184 </TABLE>
  </DEFINITION>

  <DEFINITION>
    <FOR>Desserts</FOR>
    <TABLE>0.546427836113 0.453572163887 </TABLE>
  </DEFINITION>

  <DEFINITION>
    <FOR>TexMex</FOR>
    <GIVEN>Mexican</GIVEN>
    <TABLE>0.719704952582 0.280295047418 0.288546255507 0.711453744493 </TABLE>
  </DEFINITION>

  <DEFINITION>
    <FOR>Indian</FOR>
    <TABLE>0.511194029851 0.488805970149 </TABLE>
  </DEFINITION>

  <DEFINITION>
    <FOR>Salad</FOR>
    <GIVEN>Italian</GIVEN>
    <TABLE>0.658409134895 0.341590865105 0.425689584191 0.574310415809 </TABLE>
  </DEFINITION>

  <DEFINITION>
    <FOR>Steakhouses</FOR>
    <GIVEN>Seafood</GIVEN>
    <TABLE>0.688301742294 0.311698257706 0.323839009288 0.676160990712 </TABLE>
  </DEFINITION>

  <DEFINITION>
    <FOR>Southern</FOR>
    <TABLE>0.562832800852 0.437167199148 </TABLE>
  </DEFINITION>

  <DEFINITION>
    <FOR>Morning</FOR>
    <GIVEN>BreakfastBrunch</GIVEN>
    <TABLE>0.9448630546585276 0.05513694534147244 0.685825892857 0.314174107143 </TABLE>
  </DEFINITION>

  <DEFINITION>
    <FOR>SushiBars</FOR>
    <GIVEN>Japanese</GIVEN>
    <TABLE>0.813169446883 0.186830553117 0.211016445413 0.788983554587 </TABLE>
  </DEFINITION>

  <DEFINITION>
    <FOR>MiddleEastern</FOR>
    <GIVEN>Greek</GIVEN>
    <GIVEN>Mediterranean</GIVEN>
    <TABLE>0.801126760563 0.198873239437 0.410447761194 0.589552238806 0.668304668305 0.331695331695 0.24182444062 0.75817555938 </TABLE>
  </DEFINITION>

  <DEFINITION>
    <FOR>Noodles</FOR>
    <GIVEN>Chinese</GIVEN>
    <GIVEN>Japanese</GIVEN>
    <TABLE>0.79327259986 0.20672740014 0.541490857947 0.458509142053 0.592171717172 0.407828282828 0.344562078922 0.655437921078 </TABLE>
  </DEFINITION>

  <DEFINITION>
    <FOR>Italian</FOR>
    <GIVEN>Pizza</GIVEN>
    <TABLE>0.731649331352 0.268350668648 0.285028022418 0.714971977582 </TABLE>
  </DEFINITION>

  <DEFINITION>
    <FOR>Asian</FOR>
    <GIVEN>AsianFusion</GIVEN>
    <GIVEN>Chinese</GIVEN>
    <GIVEN>Japanese</GIVEN>
    <TABLE>0.9970313825275713 0.002968617472428723 0.9377777777778125 0.06222222222218756 0.965896589659 0.034103410341 0.834328358209 0.165671641791 0.965811965812 0.034188034188 0.859281437126 0.140718562874 0.898104265403 0.101895734597 0.834628190899 0.165371809101 </TABLE>
  </DEFINITION>

  <DEFINITION>
    <FOR>Sandwiches</FOR>
    <GIVEN>BreakfastBrunch</GIVEN>
    <TABLE>0.682404540764 0.317595459236 0.36 0.64 </TABLE>
  </DEFINITION>

  <DEFINITION>
    <FOR>ChickenWings</FOR>
    <GIVEN>Fast</GIVEN>
    <GIVEN>FastFood</GIVEN>
    <TABLE>0.657700810612 0.342299189388 0.446397941681 0.553602058319 0.362139917695 0.637860082305 0.284552845528 0.715447154472 </TABLE>
  </DEFINITION>

  <DEFINITION>
    <FOR>AsianFusion</FOR>
    <GIVEN>Chinese</GIVEN>
    <GIVEN>Japanese</GIVEN>
    <TABLE>0.80122324159 0.19877675841 0.573979591837 0.426020408163 0.518539646321 0.481460353679 0.271035598706 0.728964401294 </TABLE>
  </DEFINITION>

  <DEFINITION>
    <FOR>Buffets</FOR>
    <GIVEN>Indian</GIVEN>
    <TABLE>0.689164086687 0.310835913313 0.365543547362 0.634456452638 </TABLE>
  </DEFINITION>

  <DEFINITION>
    <FOR>Korean</FOR>
    <GIVEN>AsianFusion</GIVEN>
    <TABLE>0.690043832185 0.309956167815 0.378331900258 0.621668099742 </TABLE>
  </DEFINITION>

  <DEFINITION>
    <FOR>Fast</FOR>
    <GIVEN>Burgers</GIVEN>
    <GIVEN>FastFood</GIVEN>
    <GIVEN>Pizza</GIVEN>
    <TABLE>0.9947569113441392 0.005243088655860734 0.9585389930898083 0.04146100691019171 0.9436769394260943 0.05632306057390563 0.852130325815 0.147869674185 0.9282639885221857 0.07173601147781435 0.81308411215 0.18691588785 0.806818181818 0.193181818182 0.735958005249 0.264041994751 </TABLE>
  </DEFINITION>

  <DEFINITION>
    <FOR>Delis</FOR>
    <GIVEN>Sandwiches</GIVEN>
    <GIVEN>SpecialtyFood</GIVEN>
    <TABLE>0.768131286395 0.231868713605 0.61329305136 0.38670694864 0.4453125 0.5546875 0.274079320113 0.725920679887 </TABLE>
  </DEFINITION>

  <DEFINITION>
    <FOR>Pizza</FOR>
    <GIVEN>Sandwiches</GIVEN>
    <TABLE>0.653479641929 0.346520358071 0.363251343867 0.636748656133 </TABLE>
  </DEFINITION>

  <DEFINITION>
    <FOR>Cafes</FOR>
    <GIVEN>Bakeries</GIVEN>
    <TABLE>0.716 0.284 0.368668407311 0.631331592689 </TABLE>
  </DEFINITION>

  <DEFINITION>
    <FOR>HotDogs</FOR>
    <GIVEN>EthnicFood</GIVEN>
    <TABLE>0.666370106762 0.333629893238 0.476300578035 0.523699421965 </TABLE>
  </DEFINITION>

  <DEFINITION>
    <FOR>CoffeeTea</FOR>
    <GIVEN>BreakfastBrunch</GIVEN>
    <GIVEN>Cafes</GIVEN>
    <GIVEN>Desserts</GIVEN>
    <GIVEN>Morning</GIVEN>
    <TABLE>0.855 0.145 0.242424242424 0.757575757576 0.717299578059 0.282700421941 0.137931034483 0.862068965517 0.63436123348 0.36563876652 0.272727272727 0.727272727273 0.442424242424 0.557575757576 0.197674418605 0.802325581395 0.779746835443 0.220253164557 0.483193277311 0.516806722689 0.59765625 0.40234375 0.343873517787 0.656126482213 0.367768595041 0.632231404959 0.296675191816 0.703324808184 0.170478170478 0.829521829522 0.177506775068 0.822493224932 </TABLE>
  </DEFINITION>

  <DEFINITION>
    <FOR>Seafood</FOR>
    <GIVEN>AmericanTraditional</GIVEN>
    <GIVEN>Mexican</GIVEN>
    <TABLE>0.713394018205 0.286605981795 0.546194351364 0.453805648636 0.452107279693 0.547892720307 0.304850626405 0.695149373595 </TABLE>
  </DEFINITION>

  <DEFINITION>
    <FOR>SpecialtyFood</FOR>
    <GIVEN>EthnicFood</GIVEN>
    <TABLE>0.880952380952 0.119047619048 0.125554569654 0.874445430346 </TABLE>
  </DEFINITION>

  <DEFINITION>
    <FOR>Thai</FOR>
    <GIVEN>Chinese</GIVEN>
    <TABLE>0.676781609195 0.323218390805 0.436898124683 0.563101875317 </TABLE>
  </DEFINITION>

  <DEFINITION>
    <FOR>ComfortFood</FOR>
    <TABLE>0.59640184684 0.40359815316 </TABLE>
  </DEFINITION>

  <DEFINITION>
    <FOR>Bakeries</FOR>
    <TABLE>0.522253938048 0.477746061952 </TABLE>
  </DEFINITION>

  <DEFINITION>
    <FOR>Soup</FOR>
    <GIVEN>Salad</GIVEN>
    <TABLE>0.744355679055 0.255644320945 0.297376093294 0.702623906706 </TABLE>
  </DEFINITION>

  <DEFINITION>
    <FOR>FastFood</FOR>
    <TABLE>0.501842577719 0.498157422281 </TABLE>
  </DEFINITION>

  <DEFINITION>
    <FOR>Beer</FOR>
    <GIVEN>Night</GIVEN>
    <TABLE>0.721258633922 0.278741366078 0.23532881156 0.76467118844 </TABLE>
  </DEFINITION>

  <DEFINITION>
    <FOR>TapasBars</FOR>
    <GIVEN>TapasSmallPlates</GIVEN>
    <TABLE>0.763888888889 0.236111111111 0.300492610837 0.699507389163 </TABLE>
  </DEFINITION>

  <DEFINITION>
    <FOR>Night</FOR>
    <TABLE>0.6576822128 0.3423177872 </TABLE>
  </DEFINITION>

  <DEFINITION>
    <FOR>Mediterranean</FOR>
    <TABLE>0.559790807603 0.440209192397 </TABLE>
  </DEFINITION>

</NETWORK>
</BIF>
